<?xml version="1.0"?>
<opencv_storage>
<myhaar type_id="opencv-haar-classifier">
  <size>
    24 24</size>
  <stages>
    <_>
      <trees>
        <_>
          <_>
            <feature>
              <rects>
                <_>
                  0 0 23 16 -1.</_>
                <_>
                  0 8 23 8 2.</_></rects>
              <tilted>0</tilted></feature>
            <threshold>0.0469189286231995</threshold>
            <left_val>-1.</left_val>
            <right_val>1.0000009536743164</right_val></_></_></trees>
      <stage_threshold>1.0000009536743164</stage_threshold>
      <parent>-1</parent>
      <next>-1</next></_>
    <_>
      <trees>
        <_>
          <_>
            <feature>
              <rects>
                <_>
                  9 16 4 2 -1.</_>
                <_>
                  11 16 2 2 2.</_></rects>
              <tilted>0</tilted></feature>
            <threshold>7.2310050018131733e-003</threshold>
            <left_val>-1.</left_val>
            <right_val>1.0000009536743164</right_val></_></_></trees>
      <stage_threshold>1.0000009536743164</stage_threshold>
      <parent>0</parent>
      <next>-1</next></_>
    <_>
      <trees>
        <_>
          <_>
            <feature>
              <rects>
                <_>
                  0 2 10 22 -1.</_>
                <_>
                  0 2 5 11 2.</_>
                <_>
                  5 13 5 11 2.</_></rects>
              <tilted>0</tilted></feature>
            <threshold>0.0355097316205502</threshold>
            <left_val>-1.</left_val>
            <right_val>1.0000009536743164</right_val></_></_></trees>
      <stage_threshold>1.0000009536743164</stage_threshold>
      <parent>1</parent>
      <next>-1</next></_>
    <_>
      <trees>
        <_>
          <_>
            <feature>
              <rects>
                <_>
                  4 8 16 4 -1.</_>
                <_>
                  4 8 8 2 2.</_>
                <_>
                  12 10 8 2 2.</_></rects>
              <tilted>0</tilted></feature>
            <threshold>0.0101023502647877</threshold>
            <left_val>-1.</left_val>
            <right_val>1.0000009536743164</right_val></_></_></trees>
      <stage_threshold>1.0000009536743164</stage_threshold>
      <parent>2</parent>
      <next>-1</next></_>
    <_>
      <trees>
        <_>
          <_>
            <feature>
              <rects>
                <_>
                  0 0 4 9 -1.</_>
                <_>
                  1 0 2 9 2.</_></rects>
              <tilted>0</tilted></feature>
            <threshold>1.9967150001320988e-004</threshold>
            <left_val>-1.</left_val>
            <right_val>1.</right_val></_></_>
        <_>
          <_>
            <feature>
              <rects>
                <_>
                  20 0 4 9 -1.</_>
                <_>
                  21 0 2 9 2.</_></rects>
              <tilted>0</tilted></feature>
            <threshold>-1.7491480102762580e-003</threshold>
            <left_val>1.</left_val>
            <right_val>-0.9136707782745361</right_val></_></_>
        <_>
          <_>
            <feature>
              <rects>
                <_>
                  0 0 4 9 -1.</_>
                <_>
                  1 0 2 9 2.</_></rects>
              <tilted>0</tilted></feature>
            <threshold>1.9967150001320988e-004</threshold>
            <left_val>-1.</left_val>
            <right_val>0.9999998211860657</right_val></_></_>
        <_>
          <_>
            <feature>
              <rects>
                <_>
                  22 0 2 1 -1.</_>
                <_>
                  22 0 1 1 2.</_></rects>
              <tilted>0</tilted></feature>
            <threshold>0.</threshold>
            <left_val>0.</left_val>
            <right_val>-1.</right_val></_></_>
        <_>
          <_>
            <feature>
              <rects>
                <_>
                  0 0 4 9 -1.</_>
                <_>
                  1 0 2 9 2.</_></rects>
              <tilted>0</tilted></feature>
            <threshold>1.9967150001320988e-004</threshold>
            <left_val>-1.</left_val>
            <right_val>1.</right_val></_></_>
        <_>
          <_>
            <feature>
              <rects>
                <_>
                  22 0 2 1 -1.</_>
                <_>
                  22 0 1 1 2.</_></rects>
              <tilted>0</tilted></feature>
            <threshold>0.</threshold>
            <left_val>0.</left_val>
            <right_val>-1.</right_val></_></_>
        <_>
          <_>
            <feature>
              <rects>
                <_>
                  0 0 1 3 -1.</_>
                <_>
                  0 1 1 1 3.</_></rects>
              <tilted>0</tilted></feature>
            <threshold>-1.6982019587885588e-005</threshold>
            <left_val>1.</left_val>
            <right_val>-1.</right_val></_></_></trees>
      <stage_threshold>1.0863289833068848</stage_threshold>
      <parent>3</parent>
      <next>-1</next></_>
    <_>
      <trees>
        <_>
          <_>
            <feature>
              <rects>
                <_>
                  3 4 2 10 -1.</_>
                <_>
                  3 4 1 5 2.</_>
                <_>
                  4 9 1 5 2.</_></rects>
              <tilted>0</tilted></feature>
            <threshold>3.5524950362741947e-003</threshold>
            <left_val>-1.</left_val>
            <right_val>1.0000009536743164</right_val></_></_></trees>
      <stage_threshold>1.0000009536743164</stage_threshold>
      <parent>4</parent>
      <next>-1</next></_>
    <_>
      <trees>
        <_>
          <_>
            <feature>
              <rects>
                <_>
                  0 12 13 12 -1.</_>
                <_>
                  0 15 13 6 2.</_></rects>
              <tilted>0</tilted></feature>
            <threshold>0.0371434800326824</threshold>
            <left_val>-1.</left_val>
            <right_val>1.0000009536743164</right_val></_></_></trees>
      <stage_threshold>1.0000009536743164</stage_threshold>
      <parent>5</parent>
      <next>-1</next></_>
    <_>
      <trees>
        <_>
          <_>
            <feature>
              <rects>
                <_>
                  0 4 10 8 -1.</_>
                <_>
                  0 4 5 4 2.</_>
                <_>
                  5 8 5 4 2.</_></rects>
              <tilted>0</tilted></feature>
            <threshold>5.8864098973572254e-003</threshold>
            <left_val>-1.</left_val>
            <right_val>1.0000009536743164</right_val></_></_></trees>
      <stage_threshold>1.0000009536743164</stage_threshold>
      <parent>6</parent>
      <next>-1</next></_></stages></myhaar>
</opencv_storage>
